<?xml version="1.0"?>
<opencv_storage>
<stage8>
  <maxWeakCount>7</maxWeakCount>
  <stageThreshold>-1.5136822462081909e+00</stageThreshold>
  <weakClassifiers>
    <_>
      <internalNodes>
        0 -1 259770 2.3596943356096745e-03</internalNodes>
      <leafValues>
        -7.3051518201828003e-01 5.4666668176651001e-01</leafValues></_>
    <_>
      <internalNodes>
        0 -1 2847 1.6587749123573303e-02</internalNodes>
      <leafValues>
        -7.3345547914505005e-01 3.6171472072601318e-01</leafValues></_>
    <_>
      <internalNodes>
        0 -1 1430 -2.4618147872388363e-03</internalNodes>
      <leafValues>
        2.2801120579242706e-01 -9.6292698383331299e-01</leafValues></_>
    <_>
      <internalNodes>
        0 -1 804 8.4436805918812752e-03</internalNodes>
      <leafValues>
        1.7671121656894684e-01 -1.</leafValues></_>
    <_>
      <internalNodes>
        0 -1 33632 -4.1661063733045012e-05</internalNodes>
      <leafValues>
        -9.4170039892196655e-01 1.7790436744689941e-01</leafValues></_>
    <_>
      <internalNodes>
        0 -1 17067 1.0037226275017019e-05</internalNodes>
      <leafValues>
        -7.5842750072479248e-01 3.0199399590492249e-01</leafValues></_>
    <_>
      <internalNodes>
        0 -1 17996 -7.5761752668768167e-04</internalNodes>
      <leafValues>
        -9.6939045190811157e-01 2.2185719013214111e-01</leafValues></_></weakClassifiers></stage8>
</opencv_storage>
