<?xml version="1.0"?>
<opencv_storage>
<cascade>
  <stageType>BOOST</stageType>
  <featureType>HAAR</featureType>
  <height>24</height>
  <width>24</width>
  <stageParams>
    <boostType>GAB</boostType>
    <minHitRate>9.9500000476837158e-01</minHitRate>
    <maxFalseAlarm>3.0000001192092896e-01</maxFalseAlarm>
    <weightTrimRate>9.4999999999999996e-01</weightTrimRate>
    <maxDepth>1</maxDepth>
    <maxWeakCount>100</maxWeakCount></stageParams>
  <featureParams>
    <maxCatCount>0</maxCatCount>
    <featSize>1</featSize>
    <mode>ALL</mode></featureParams>
  <stageNum>4</stageNum>
  <stages>
    <!-- stage 0 -->
    <_>
      <maxWeakCount>1</maxWeakCount>
      <stageThreshold>1.</stageThreshold>
      <weakClassifiers>
        <_>
          <internalNodes>
            0 -1 3 -4.1532650589942932e-01</internalNodes>
          <leafValues>
            1. -9.9462366104125977e-01</leafValues></_></weakClassifiers></_>
    <!-- stage 1 -->
    <_>
      <maxWeakCount>3</maxWeakCount>
      <stageThreshold>3.5758748650550842e-01</stageThreshold>
      <weakClassifiers>
        <_>
          <internalNodes>
            0 -1 0 -1.6390553355449811e-05</internalNodes>
          <leafValues>
            8.1595093011856079e-01 -9.5527154207229614e-01</leafValues></_>
        <_>
          <internalNodes>
            0 -1 4 1.6703490473446436e-05</internalNodes>
          <leafValues>
            -9.8067432641983032e-01 6.9565606117248535e-01</leafValues></_>
        <_>
          <internalNodes>
            0 -1 6 1.7115315131377429e-05</internalNodes>
          <leafValues>
            -9.9628078937530518e-01 6.1720299720764160e-01</leafValues></_></weakClassifiers></_>
    <!-- stage 2 -->
    <_>
      <maxWeakCount>4</maxWeakCount>
      <stageThreshold>-3.9374792575836182e-01</stageThreshold>
      <weakClassifiers>
        <_>
          <internalNodes>
            0 -1 3 -5.1259338855743408e-01</internalNodes>
          <leafValues>
            8.4988963603973389e-01 -8.1661891937255859e-01</leafValues></_>
        <_>
          <internalNodes>
            0 -1 2 -1.7109484178945422e-04</internalNodes>
          <leafValues>
            6.7078977823257446e-01 -9.9000638723373413e-01</leafValues></_>
        <_>
          <internalNodes>
            0 -1 1 -9.2396324872970581e-01</internalNodes>
          <leafValues>
            7.5003927946090698e-01 -8.4955328702926636e-01</leafValues></_>
        <_>
          <internalNodes>
            0 -1 7 3.6748708225786686e-04</internalNodes>
          <leafValues>
            -9.6741312742233276e-01 6.0163450241088867e-01</leafValues></_></weakClassifiers></_>
    <!-- stage 3 -->
    <_>
      <maxWeakCount>1</maxWeakCount>
      <stageThreshold>6.8283581733703613e-01</stageThreshold>
      <weakClassifiers>
        <_>
          <internalNodes>
            0 -1 5 1.7259906599065289e-05</internalNodes>
          <leafValues>
            -1. 6.8283581733703613e-01</leafValues></_></weakClassifiers></_></stages>
  <features>
    <_>
      <rects>
        <_>
          0 0 2 2 -1.</_>
        <_>
          0 1 2 1 2.</_></rects>
      <tilted>0</tilted></_>
    <_>
      <rects>
        <_>
          0 0 24 21 -1.</_>
        <_>
          8 7 8 7 9.</_></rects>
      <tilted>0</tilted></_>
    <_>
      <rects>
        <_>
          0 21 2 3 -1.</_>
        <_>
          1 21 1 3 2.</_></rects>
      <tilted>0</tilted></_>
    <_>
      <rects>
        <_>
          6 6 12 12 -1.</_>
        <_>
          10 10 4 4 9.</_></rects>
      <tilted>0</tilted></_>
    <_>
      <rects>
        <_>
          6 22 3 2 -1.</_>
        <_>
          6 23 3 1 2.</_></rects>
      <tilted>0</tilted></_>
    <_>
      <rects>
        <_>
          16 20 5 2 -1.</_>
        <_>
          16 21 5 1 2.</_></rects>
      <tilted>0</tilted></_>
    <_>
      <rects>
        <_>
          20 7 4 1 -1.</_>
        <_>
          22 7 2 1 2.</_></rects>
      <tilted>0</tilted></_>
    <_>
      <rects>
        <_>
          20 21 4 3 -1.</_>
        <_>
          22 21 2 3 2.</_></rects>
      <tilted>0</tilted></_></features></cascade>
</opencv_storage>
