<?xml version="1.0"?>
<opencv_storage>
<cascade>
  <stageType>BOOST</stageType>
  <featureType>HAAR</featureType>
  <height>24</height>
  <width>24</width>
  <stageParams>
    <boostType>GAB</boostType>
    <minHitRate>9.9500000476837158e-01</minHitRate>
    <maxFalseAlarm>4.0000000596046448e-01</maxFalseAlarm>
    <weightTrimRate>9.4999999999999996e-01</weightTrimRate>
    <maxDepth>1</maxDepth>
    <maxWeakCount>100</maxWeakCount></stageParams>
  <featureParams>
    <maxCatCount>0</maxCatCount>
    <featSize>1</featSize>
    <mode>ALL</mode></featureParams>
  <stageNum>6</stageNum>
  <stages>
    <!-- stage 0 -->
    <_>
      <maxWeakCount>2</maxWeakCount>
      <stageThreshold>-4.4151711463928223e-01</stageThreshold>
      <weakClassifiers>
        <_>
          <internalNodes>
            0 -1 11 -5.3166508674621582e-01</internalNodes>
          <leafValues>
            8.7878787517547607e-01 -9.8500752449035645e-01</leafValues></_>
        <_>
          <internalNodes>
            0 -1 1 -6.9000232219696045e-01</internalNodes>
          <leafValues>
            5.4349040985107422e-01 -1.</leafValues></_></weakClassifiers></_>
    <!-- stage 1 -->
    <_>
      <maxWeakCount>3</maxWeakCount>
      <stageThreshold>-1.1544345617294312e+00</stageThreshold>
      <weakClassifiers>
        <_>
          <internalNodes>
            0 -1 1 -1.0853803157806396e+00</internalNodes>
          <leafValues>
            6.5217393636703491e-01 -8.1868898868560791e-01</leafValues></_>
        <_>
          <internalNodes>
            0 -1 3 -7.9251592978835106e-03</internalNodes>
          <leafValues>
            4.4016915559768677e-01 -8.7173968553543091e-01</leafValues></_>
        <_>
          <internalNodes>
            0 -1 6 7.8704878687858582e-03</internalNodes>
          <leafValues>
            -7.7591472864151001e-01 5.4187428951263428e-01</leafValues></_></weakClassifiers></_>
    <!-- stage 2 -->
    <_>
      <maxWeakCount>5</maxWeakCount>
      <stageThreshold>-1.4878053665161133e+00</stageThreshold>
      <weakClassifiers>
        <_>
          <internalNodes>
            0 -1 8 -1.9677323102951050e-01</internalNodes>
          <leafValues>
            6.4444446563720703e-01 -7.6819407939910889e-01</leafValues></_>
        <_>
          <internalNodes>
            0 -1 7 -2.0514370873570442e-02</internalNodes>
          <leafValues>
            4.2313227057456970e-01 -9.0661662817001343e-01</leafValues></_>
        <_>
          <internalNodes>
            0 -1 16 5.6775894016027451e-02</internalNodes>
          <leafValues>
            -9.2075353860855103e-01 3.9862799644470215e-01</leafValues></_>
        <_>
          <internalNodes>
            0 -1 13 -2.0922532677650452e-01</internalNodes>
          <leafValues>
            5.5789846181869507e-01 -7.2540467977523804e-01</leafValues></_>
        <_>
          <internalNodes>
            0 -1 17 4.5950170606374741e-03</internalNodes>
          <leafValues>
            -8.1596690416336060e-01 5.2870303392410278e-01</leafValues></_></weakClassifiers></_>
    <!-- stage 3 -->
    <_>
      <maxWeakCount>3</maxWeakCount>
      <stageThreshold>-8.8789272308349609e-01</stageThreshold>
      <weakClassifiers>
        <_>
          <internalNodes>
            0 -1 5 -2.4676465988159180e-01</internalNodes>
          <leafValues>
            4.6296295523643494e-01 -7.7624309062957764e-01</leafValues></_>
        <_>
          <internalNodes>
            0 -1 14 -1.6419459879398346e-01</internalNodes>
          <leafValues>
            8.5940200090408325e-01 -5.2354419231414795e-01</leafValues></_>
        <_>
          <internalNodes>
            0 -1 4 -5.0628442317247391e-02</internalNodes>
          <leafValues>
            4.1330757737159729e-01 -9.7105163335800171e-01</leafValues></_></weakClassifiers></_>
    <!-- stage 4 -->
    <_>
      <maxWeakCount>4</maxWeakCount>
      <stageThreshold>-7.5419688224792480e-01</stageThreshold>
      <weakClassifiers>
        <_>
          <internalNodes>
            0 -1 15 2.3140108585357666e-01</internalNodes>
          <leafValues>
            -7.4473685026168823e-01 7.5000000000000000e-01</leafValues></_>
        <_>
          <internalNodes>
            0 -1 12 6.4078912138938904e-02</internalNodes>
          <leafValues>
            -6.3585346937179565e-01 6.2112468481063843e-01</leafValues></_>
        <_>
          <internalNodes>
            0 -1 19 -1.0596753563731909e-03</internalNodes>
          <leafValues>
            -9.7110879421234131e-01 3.2832139730453491e-01</leafValues></_>
        <_>
          <internalNodes>
            0 -1 18 8.4971636533737183e-03</internalNodes>
          <leafValues>
            2.9807198047637939e-01 -1.</leafValues></_></weakClassifiers></_>
    <!-- stage 5 -->
    <_>
      <maxWeakCount>5</maxWeakCount>
      <stageThreshold>-1.4895051717758179e+00</stageThreshold>
      <weakClassifiers>
        <_>
          <internalNodes>
            0 -1 10 5.3783692419528961e-02</internalNodes>
          <leafValues>
            -7.3726540803909302e-01 4.4186046719551086e-01</leafValues></_>
        <_>
          <internalNodes>
            0 -1 9 8.2555875182151794e-02</internalNodes>
          <leafValues>
            -5.5918025970458984e-01 6.8472224473953247e-01</leafValues></_>
        <_>
          <internalNodes>
            0 -1 20 5.7417724747210741e-04</internalNodes>
          <leafValues>
            3.7663996219635010e-01 -1.</leafValues></_>
        <_>
          <internalNodes>
            0 -1 0 -1.7562259454280138e-03</internalNodes>
          <leafValues>
            -8.6695778369903564e-01 3.2158532738685608e-01</leafValues></_>
        <_>
          <internalNodes>
            0 -1 2 -2.4586864747107029e-03</internalNodes>
          <leafValues>
            2.9725837707519531e-01 -9.6218222379684448e-01</leafValues></_></weakClassifiers></_></stages>
  <features>
    <_>
      <rects>
        <_>
          0 0 24 1 -1.</_>
        <_>
          6 0 12 1 2.</_></rects>
      <tilted>0</tilted></_>
    <_>
      <rects>
        <_>
          0 0 24 24 -1.</_>
        <_>
          8 8 8 8 9.</_></rects>
      <tilted>0</tilted></_>
    <_>
      <rects>
        <_>
          0 0 24 2 -1.</_>
        <_>
          0 1 24 1 2.</_></rects>
      <tilted>0</tilted></_>
    <_>
      <rects>
        <_>
          0 2 2 21 -1.</_>
        <_>
          1 2 1 21 2.</_></rects>
      <tilted>0</tilted></_>
    <_>
      <rects>
        <_>
          0 3 10 17 -1.</_>
        <_>
          5 3 5 17 2.</_></rects>
      <tilted>0</tilted></_>
    <_>
      <rects>
        <_>
          0 5 24 9 -1.</_>
        <_>
          6 5 12 9 2.</_></rects>
      <tilted>0</tilted></_>
    <_>
      <rects>
        <_>
          0 22 23 2 -1.</_>
        <_>
          0 23 23 1 2.</_></rects>
      <tilted>0</tilted></_>
    <_>
      <rects>
        <_>
          1 0 23 4 -1.</_>
        <_>
          1 2 23 2 2.</_></rects>
      <tilted>0</tilted></_>
    <_>
      <rects>
        <_>
          1 8 18 8 -1.</_>
        <_>
          10 8 9 8 2.</_></rects>
      <tilted>0</tilted></_>
    <_>
      <rects>
        <_>
          1 18 23 6 -1.</_>
        <_>
          1 21 23 3 2.</_></rects>
      <tilted>0</tilted></_>
    <_>
      <rects>
        <_>
          2 15 20 7 -1.</_>
        <_>
          7 15 10 7 2.</_></rects>
      <tilted>0</tilted></_>
    <_>
      <rects>
        <_>
          3 0 18 24 -1.</_>
        <_>
          9 8 6 8 9.</_></rects>
      <tilted>0</tilted></_>
    <_>
      <rects>
        <_>
          3 18 16 6 -1.</_>
        <_>
          3 21 16 3 2.</_></rects>
      <tilted>0</tilted></_>
    <_>
      <rects>
        <_>
          6 0 12 24 -1.</_>
        <_>
          6 6 12 12 2.</_></rects>
      <tilted>0</tilted></_>
    <_>
      <rects>
        <_>
          8 2 8 18 -1.</_>
        <_>
          8 11 8 9 2.</_></rects>
      <tilted>0</tilted></_>
    <_>
      <rects>
        <_>
          8 4 8 20 -1.</_>
        <_>
          8 14 8 10 2.</_></rects>
      <tilted>0</tilted></_>
    <_>
      <rects>
        <_>
          14 5 10 16 -1.</_>
        <_>
          19 5 5 16 2.</_></rects>
      <tilted>0</tilted></_>
    <_>
      <rects>
        <_>
          22 2 2 19 -1.</_>
        <_>
          23 2 1 19 2.</_></rects>
      <tilted>0</tilted></_>
    <_>
      <rects>
        <_>
          23 0 1 24 -1.</_>
        <_>
          23 8 1 8 3.</_></rects>
      <tilted>0</tilted></_>
    <_>
      <rects>
        <_>
          23 3 1 20 -1.</_>
        <_>
          23 8 1 10 2.</_></rects>
      <tilted>0</tilted></_>
    <_>
      <rects>
        <_>
          23 11 1 8 -1.</_>
        <_>
          23 15 1 4 2.</_></rects>
      <tilted>0</tilted></_></features></cascade>
</opencv_storage>
