<?xml version="1.0"?>
<opencv_storage>
<stage2>
  <maxWeakCount>5</maxWeakCount>
  <stageThreshold>-1.4878053665161133e+00</stageThreshold>
  <weakClassifiers>
    <_>
      <internalNodes>
        0 -1 27199 -1.9677323102951050e-01</internalNodes>
      <leafValues>
        6.4444446563720703e-01 -7.6819407939910889e-01</leafValues></_>
    <_>
      <internalNodes>
        0 -1 18850 -2.0514370873570442e-02</internalNodes>
      <leafValues>
        4.2313227057456970e-01 -9.0661662817001343e-01</leafValues></_>
    <_>
      <internalNodes>
        0 -1 208886 5.6775894016027451e-02</internalNodes>
      <leafValues>
        -9.2075353860855103e-01 3.9862799644470215e-01</leafValues></_>
    <_>
      <internalNodes>
        0 -1 99276 -2.0922532677650452e-01</internalNodes>
      <leafValues>
        5.5789846181869507e-01 -7.2540467977523804e-01</leafValues></_>
    <_>
      <internalNodes>
        0 -1 259586 4.5950170606374741e-03</internalNodes>
      <leafValues>
        -8.1596690416336060e-01 5.2870303392410278e-01</leafValues></_></weakClassifiers></stage2>
</opencv_storage>
